#pragma once
#include <cstdarg>
namespace Eloquent {
    namespace ML {
        namespace Port {
            class RandomForest {
                public:
                    /**
                    * Predict class for features vector
                    */
                    int predict(float *x) {
                        uint8_t votes[2] = { 0 };
                        // tree #1
                        if (x[2] <= 0.05823293328285217) {
                            if (x[9] <= 0.5) {
                                if (x[1] <= 0.41781608760356903) {
                                    if (x[8] <= 0.5) {
                                        if (x[0] <= 0.0358851682394743) {
                                            if (x[4] <= 0.5) {
                                                if (x[6] <= 0.5) {
                                                    votes[0] += 1;
                                                }

                                                else {
                                                    votes[1] += 1;
                                                }
                                            }

                                            else {
                                                votes[1] += 1;
                                            }
                                        }

                                        else {
                                            if (x[4] <= 0.5) {
                                                if (x[11] <= 0.5) {
                                                    if (x[0] <= 0.110047847032547) {
                                                        if (x[3] <= 0.5) {
                                                            votes[0] += 1;
                                                        }

                                                        else {
                                                            if (x[2] <= 0.03413654584437609) {
                                                                if (x[0] <= 0.09090908989310265) {
                                                                    votes[0] += 1;
                                                                }

                                                                else {
                                                                    votes[1] += 1;
                                                                }
                                                            }

                                                            else {
                                                                votes[1] += 1;
                                                            }
                                                        }
                                                    }

                                                    else {
                                                        if (x[2] <= 0.03413654491305351) {
                                                            if (x[2] <= 0.030120481736958027) {
                                                                votes[0] += 1;
                                                            }

                                                            else {
                                                                if (x[0] <= 0.39952152967453003) {
                                                                    votes[0] += 1;
                                                                }

                                                                else {
                                                                    votes[1] += 1;
                                                                }
                                                            }
                                                        }

                                                        else {
                                                            votes[0] += 1;
                                                        }
                                                    }
                                                }

                                                else {
                                                    votes[0] += 1;
                                                }
                                            }

                                            else {
                                                if (x[0] <= 0.519138753414154) {
                                                    if (x[1] <= 0.313218392431736) {
                                                        votes[0] += 1;
                                                    }

                                                    else {
                                                        votes[1] += 1;
                                                    }
                                                }

                                                else {
                                                    votes[1] += 1;
                                                }
                                            }
                                        }
                                    }

                                    else {
                                        votes[0] += 1;
                                    }
                                }

                                else {
                                    if (x[1] <= 0.6603448390960693) {
                                        if (x[2] <= 0.02208835259079933) {
                                            votes[1] += 1;
                                        }

                                        else {
                                            if (x[2] <= 0.03815260902047157) {
                                                if (x[10] <= 0.5) {
                                                    if (x[0] <= 0.5358851850032806) {
                                                        if (x[4] <= 0.5) {
                                                            if (x[11] <= 0.5) {
                                                                votes[1] += 1;
                                                            }

                                                            else {
                                                                votes[0] += 1;
                                                            }
                                                        }

                                                        else {
                                                            votes[1] += 1;
                                                        }
                                                    }

                                                    else {
                                                        votes[0] += 1;
                                                    }
                                                }

                                                else {
                                                    votes[1] += 1;
                                                }
                                            }

                                            else {
                                                if (x[0] <= 0.09569377824664116) {
                                                    votes[0] += 1;
                                                }

                                                else {
                                                    if (x[11] <= 0.5) {
                                                        votes[1] += 1;
                                                    }

                                                    else {
                                                        votes[0] += 1;
                                                    }
                                                }
                                            }
                                        }
                                    }

                                    else {
                                        if (x[0] <= 0.26076555252075195) {
                                            if (x[2] <= 0.024096385575830936) {
                                                votes[0] += 1;
                                            }

                                            else {
                                                if (x[1] <= 0.7545976936817169) {
                                                    votes[1] += 1;
                                                }

                                                else {
                                                    votes[0] += 1;
                                                }
                                            }
                                        }

                                        else {
                                            votes[1] += 1;
                                        }
                                    }
                                }
                            }

                            else {
                                if (x[2] <= 0.046184737235307693) {
                                    if (x[1] <= 0.49425289034843445) {
                                        votes[0] += 1;
                                    }

                                    else {
                                        votes[1] += 1;
                                    }
                                }

                                else {
                                    votes[0] += 1;
                                }
                            }
                        }

                        else {
                            if (x[10] <= 0.5) {
                                if (x[5] <= 0.5) {
                                    if (x[0] <= 0.48564593493938446) {
                                        if (x[0] <= 0.13636363297700882) {
                                            if (x[2] <= 0.062248995527625084) {
                                                if (x[0] <= 0.10047847032546997) {
                                                    votes[0] += 1;
                                                }

                                                else {
                                                    votes[1] += 1;
                                                }
                                            }

                                            else {
                                                if (x[11] <= 0.5) {
                                                    votes[1] += 1;
                                                }

                                                else {
                                                    votes[0] += 1;
                                                }
                                            }
                                        }

                                        else {
                                            if (x[2] <= 0.062248995527625084) {
                                                if (x[11] <= 0.5) {
                                                    if (x[1] <= 0.19540229439735413) {
                                                        votes[0] += 1;
                                                    }

                                                    else {
                                                        votes[1] += 1;
                                                    }
                                                }

                                                else {
                                                    votes[1] += 1;
                                                }
                                            }

                                            else {
                                                votes[1] += 1;
                                            }
                                        }
                                    }

                                    else {
                                        votes[0] += 1;
                                    }
                                }

                                else {
                                    votes[0] += 1;
                                }
                            }

                            else {
                                if (x[1] <= 0.502873569726944) {
                                    votes[0] += 1;
                                }

                                else {
                                    votes[1] += 1;
                                }
                            }
                        }

                        // tree #2
                        if (x[2] <= 0.02208835259079933) {
                            if (x[2] <= 0.01004016026854515) {
                                votes[0] += 1;
                            }

                            else {
                                if (x[10] <= 0.5) {
                                    if (x[1] <= 0.4396551698446274) {
                                        if (x[0] <= 0.028708132915198803) {
                                            if (x[2] <= 0.01807228848338127) {
                                                votes[0] += 1;
                                            }

                                            else {
                                                votes[1] += 1;
                                            }
                                        }

                                        else {
                                            votes[0] += 1;
                                        }
                                    }

                                    else {
                                        if (x[0] <= 0.28229664266109467) {
                                            if (x[2] <= 0.01807228848338127) {
                                                votes[1] += 1;
                                            }

                                            else {
                                                votes[0] += 1;
                                            }
                                        }

                                        else {
                                            votes[1] += 1;
                                        }
                                    }
                                }

                                else {
                                    if (x[1] <= 0.4017241299152374) {
                                        votes[0] += 1;
                                    }

                                    else {
                                        votes[1] += 1;
                                    }
                                }
                            }
                        }

                        else {
                            if (x[0] <= 0.0023923444095999002) {
                                votes[1] += 1;
                            }

                            else {
                                if (x[1] <= 0.26379311084747314) {
                                    if (x[1] <= 0.24080459773540497) {
                                        votes[0] += 1;
                                    }

                                    else {
                                        if (x[2] <= 0.07028112187981606) {
                                            if (x[6] <= 0.5) {
                                                votes[0] += 1;
                                            }

                                            else {
                                                votes[1] += 1;
                                            }
                                        }

                                        else {
                                            votes[1] += 1;
                                        }
                                    }
                                }

                                else {
                                    if (x[0] <= 0.5406698286533356) {
                                        if (x[11] <= 0.5) {
                                            if (x[5] <= 0.5) {
                                                if (x[9] <= 0.5) {
                                                    if (x[4] <= 0.5) {
                                                        if (x[1] <= 0.2689655125141144) {
                                                            if (x[6] <= 0.5) {
                                                                if (x[0] <= 0.20813396573066711) {
                                                                    votes[1] += 1;
                                                                }

                                                                else {
                                                                    votes[0] += 1;
                                                                }
                                                            }

                                                            else {
                                                                votes[1] += 1;
                                                            }
                                                        }

                                                        else {
                                                            votes[1] += 1;
                                                        }
                                                    }

                                                    else {
                                                        votes[1] += 1;
                                                    }
                                                }

                                                else {
                                                    if (x[0] <= 0.07655502110719681) {
                                                        votes[1] += 1;
                                                    }

                                                    else {
                                                        if (x[1] <= 0.376436784863472) {
                                                            votes[0] += 1;
                                                        }

                                                        else {
                                                            votes[1] += 1;
                                                        }
                                                    }
                                                }
                                            }

                                            else {
                                                if (x[2] <= 0.04216867312788963) {
                                                    if (x[1] <= 0.5729884952306747) {
                                                        votes[0] += 1;
                                                    }

                                                    else {
                                                        votes[1] += 1;
                                                    }
                                                }

                                                else {
                                                    if (x[2] <= 0.0502008032053709) {
                                                        votes[1] += 1;
                                                    }

                                                    else {
                                                        if (x[0] <= 0.41626793146133423) {
                                                            if (x[0] <= 0.32775118947029114) {
                                                                if (x[1] <= 0.5212643593549728) {
                                                                    votes[0] += 1;
                                                                }

                                                                else {
                                                                    votes[1] += 1;
                                                                }
                                                            }

                                                            else {
                                                                votes[1] += 1;
                                                            }
                                                        }

                                                        else {
                                                            votes[0] += 1;
                                                        }
                                                    }
                                                }
                                            }
                                        }

                                        else {
                                            if (x[1] <= 0.5344827473163605) {
                                                votes[0] += 1;
                                            }

                                            else {
                                                if (x[1] <= 0.6839080452919006) {
                                                    if (x[1] <= 0.6097701191902161) {
                                                        if (x[1] <= 0.5522988438606262) {
                                                            if (x[0] <= 0.39952152967453003) {
                                                                if (x[2] <= 0.07028112560510635) {
                                                                    votes[0] += 1;
                                                                }

                                                                else {
                                                                    votes[1] += 1;
                                                                }
                                                            }

                                                            else {
                                                                votes[1] += 1;
                                                            }
                                                        }

                                                        else {
                                                            votes[1] += 1;
                                                        }
                                                    }

                                                    else {
                                                        if (x[0] <= 0.10765550308860838) {
                                                            votes[0] += 1;
                                                        }

                                                        else {
                                                            votes[1] += 1;
                                                        }
                                                    }
                                                }

                                                else {
                                                    votes[1] += 1;
                                                }
                                            }
                                        }
                                    }

                                    else {
                                        if (x[11] <= 0.5) {
                                            if (x[0] <= 0.5837320685386658) {
                                                if (x[0] <= 0.5550239086151123) {
                                                    votes[0] += 1;
                                                }

                                                else {
                                                    if (x[1] <= 0.5459770262241364) {
                                                        votes[0] += 1;
                                                    }

                                                    else {
                                                        votes[1] += 1;
                                                    }
                                                }
                                            }

                                            else {
                                                if (x[1] <= 0.4879310429096222) {
                                                    votes[0] += 1;
                                                }

                                                else {
                                                    votes[1] += 1;
                                                }
                                            }
                                        }

                                        else {
                                            votes[0] += 1;
                                        }
                                    }
                                }
                            }
                        }

                        // tree #3
                        if (x[2] <= 0.08232931420207024) {
                            if (x[1] <= 0.39022988080978394) {
                                if (x[6] <= 0.5) {
                                    if (x[4] <= 0.5) {
                                        if (x[2] <= 0.026104417629539967) {
                                            votes[0] += 1;
                                        }

                                        else {
                                            if (x[2] <= 0.03413654491305351) {
                                                if (x[11] <= 0.5) {
                                                    if (x[1] <= 0.3442528694868088) {
                                                        votes[0] += 1;
                                                    }

                                                    else {
                                                        votes[1] += 1;
                                                    }
                                                }

                                                else {
                                                    votes[0] += 1;
                                                }
                                            }

                                            else {
                                                if (x[0] <= 0.0047846888191998005) {
                                                    votes[1] += 1;
                                                }

                                                else {
                                                    if (x[10] <= 0.5) {
                                                        if (x[5] <= 0.5) {
                                                            if (x[0] <= 0.46889953315258026) {
                                                                votes[0] += 1;
                                                            }

                                                            else {
                                                                if (x[11] <= 0.5) {
                                                                    votes[1] += 1;
                                                                }

                                                                else {
                                                                    votes[0] += 1;
                                                                }
                                                            }
                                                        }

                                                        else {
                                                            votes[0] += 1;
                                                        }
                                                    }

                                                    else {
                                                        votes[0] += 1;
                                                    }
                                                }
                                            }
                                        }
                                    }

                                    else {
                                        if (x[2] <= 0.0200803205370903) {
                                            votes[0] += 1;
                                        }

                                        else {
                                            if (x[2] <= 0.026104417629539967) {
                                                if (x[0] <= 0.050239235162734985) {
                                                    votes[0] += 1;
                                                }

                                                else {
                                                    votes[1] += 1;
                                                }
                                            }

                                            else {
                                                votes[1] += 1;
                                            }
                                        }
                                    }
                                }

                                else {
                                    if (x[0] <= 0.19617225229740143) {
                                        votes[1] += 1;
                                    }

                                    else {
                                        if (x[0] <= 0.38755981624126434) {
                                            if (x[2] <= 0.05421686731278896) {
                                                votes[0] += 1;
                                            }

                                            else {
                                                if (x[1] <= 0.310344822704792) {
                                                    votes[0] += 1;
                                                }

                                                else {
                                                    votes[1] += 1;
                                                }
                                            }
                                        }

                                        else {
                                            votes[1] += 1;
                                        }
                                    }
                                }
                            }

                            else {
                                if (x[11] <= 0.5) {
                                    if (x[4] <= 0.5) {
                                        if (x[0] <= 0.42105261981487274) {
                                            if (x[0] <= 0.24401913583278656) {
                                                votes[1] += 1;
                                            }

                                            else {
                                                if (x[3] <= 0.5) {
                                                    if (x[5] <= 0.5) {
                                                        votes[1] += 1;
                                                    }

                                                    else {
                                                        if (x[2] <= 0.0502008032053709) {
                                                            votes[1] += 1;
                                                        }

                                                        else {
                                                            if (x[0] <= 0.32775118947029114) {
                                                                votes[0] += 1;
                                                            }

                                                            else {
                                                                votes[1] += 1;
                                                            }
                                                        }
                                                    }
                                                }

                                                else {
                                                    votes[1] += 1;
                                                }
                                            }
                                        }

                                        else {
                                            if (x[1] <= 0.49425287544727325) {
                                                votes[0] += 1;
                                            }

                                            else {
                                                votes[1] += 1;
                                            }
                                        }
                                    }

                                    else {
                                        if (x[0] <= 0.49043063819408417) {
                                            votes[1] += 1;
                                        }

                                        else {
                                            votes[0] += 1;
                                        }
                                    }
                                }

                                else {
                                    if (x[0] <= 0.60047847032547) {
                                        if (x[0] <= 0.2081339731812477) {
                                            votes[0] += 1;
                                        }

                                        else {
                                            if (x[0] <= 0.3636363595724106) {
                                                if (x[0] <= 0.29904305934906006) {
                                                    votes[1] += 1;
                                                }

                                                else {
                                                    if (x[0] <= 0.3181818127632141) {
                                                        votes[0] += 1;
                                                    }

                                                    else {
                                                        if (x[2] <= 0.03815260902047157) {
                                                            votes[0] += 1;
                                                        }

                                                        else {
                                                            votes[1] += 1;
                                                        }
                                                    }
                                                }
                                            }

                                            else {
                                                votes[1] += 1;
                                            }
                                        }
                                    }

                                    else {
                                        votes[0] += 1;
                                    }
                                }
                            }
                        }

                        else {
                            votes[1] += 1;
                        }

                        // tree #4
                        if (x[2] <= 0.062248995527625084) {
                            if (x[2] <= 0.02208835259079933) {
                                if (x[4] <= 0.5) {
                                    if (x[10] <= 0.5) {
                                        if (x[1] <= 0.4396551698446274) {
                                            votes[0] += 1;
                                        }

                                        else {
                                            if (x[11] <= 0.5) {
                                                votes[1] += 1;
                                            }

                                            else {
                                                votes[0] += 1;
                                            }
                                        }
                                    }

                                    else {
                                        if (x[0] <= 0.06698564440011978) {
                                            votes[1] += 1;
                                        }

                                        else {
                                            if (x[0] <= 0.2416267916560173) {
                                                if (x[1] <= 0.37931033968925476) {
                                                    votes[0] += 1;
                                                }

                                                else {
                                                    votes[1] += 1;
                                                }
                                            }

                                            else {
                                                votes[0] += 1;
                                            }
                                        }
                                    }
                                }

                                else {
                                    if (x[1] <= 0.3206896632909775) {
                                        votes[0] += 1;
                                    }

                                    else {
                                        votes[1] += 1;
                                    }
                                }
                            }

                            else {
                                if (x[1] <= 0.31551724672317505) {
                                    if (x[6] <= 0.5) {
                                        if (x[0] <= 0.4569378048181534) {
                                            votes[0] += 1;
                                        }

                                        else {
                                            if (x[11] <= 0.5) {
                                                if (x[2] <= 0.046184737235307693) {
                                                    votes[0] += 1;
                                                }

                                                else {
                                                    if (x[2] <= 0.05421686731278896) {
                                                        if (x[0] <= 0.5263157933950424) {
                                                            votes[1] += 1;
                                                        }

                                                        else {
                                                            votes[0] += 1;
                                                        }
                                                    }

                                                    else {
                                                        if (x[1] <= 0.1787356287240982) {
                                                            votes[0] += 1;
                                                        }

                                                        else {
                                                            votes[1] += 1;
                                                        }
                                                    }
                                                }
                                            }

                                            else {
                                                votes[0] += 1;
                                            }
                                        }
                                    }

                                    else {
                                        votes[0] += 1;
                                    }
                                }

                                else {
                                    if (x[10] <= 0.5) {
                                        if (x[2] <= 0.05823293328285217) {
                                            if (x[1] <= 0.4005747139453888) {
                                                if (x[3] <= 0.5) {
                                                    if (x[1] <= 0.3689655214548111) {
                                                        if (x[4] <= 0.5) {
                                                            if (x[1] <= 0.33620689809322357) {
                                                                if (x[0] <= 0.3133971318602562) {
                                                                    votes[0] += 1;
                                                                }

                                                                else {
                                                                    if (x[7] <= 0.5) {
                                                                        votes[0] += 1;
                                                                    }

                                                                    else {
                                                                        votes[1] += 1;
                                                                    }
                                                                }
                                                            }

                                                            else {
                                                                votes[1] += 1;
                                                            }
                                                        }

                                                        else {
                                                            votes[1] += 1;
                                                        }
                                                    }

                                                    else {
                                                        votes[0] += 1;
                                                    }
                                                }

                                                else {
                                                    votes[1] += 1;
                                                }
                                            }

                                            else {
                                                if (x[0] <= 0.34449760615825653) {
                                                    if (x[2] <= 0.03815260902047157) {
                                                        if (x[1] <= 0.6839080452919006) {
                                                            if (x[4] <= 0.5) {
                                                                if (x[11] <= 0.5) {
                                                                    votes[1] += 1;
                                                                }

                                                                else {
                                                                    if (x[2] <= 0.03212851379066706) {
                                                                        votes[1] += 1;
                                                                    }

                                                                    else {
                                                                        votes[0] += 1;
                                                                    }
                                                                }
                                                            }

                                                            else {
                                                                votes[1] += 1;
                                                            }
                                                        }

                                                        else {
                                                            votes[1] += 1;
                                                        }
                                                    }

                                                    else {
                                                        votes[1] += 1;
                                                    }
                                                }

                                                else {
                                                    if (x[0] <= 0.3516746461391449) {
                                                        votes[0] += 1;
                                                    }

                                                    else {
                                                        votes[1] += 1;
                                                    }
                                                }
                                            }
                                        }

                                        else {
                                            if (x[11] <= 0.5) {
                                                votes[0] += 1;
                                            }

                                            else {
                                                if (x[0] <= 0.2679425850510597) {
                                                    votes[0] += 1;
                                                }

                                                else {
                                                    votes[1] += 1;
                                                }
                                            }
                                        }
                                    }

                                    else {
                                        if (x[1] <= 0.44712643325328827) {
                                            if (x[0] <= 0.5215311050415039) {
                                                votes[1] += 1;
                                            }

                                            else {
                                                votes[0] += 1;
                                            }
                                        }

                                        else {
                                            votes[1] += 1;
                                        }
                                    }
                                }
                            }
                        }

                        else {
                            if (x[6] <= 0.5) {
                                if (x[10] <= 0.5) {
                                    if (x[1] <= 0.2931034564971924) {
                                        if (x[2] <= 0.06827308982610703) {
                                            if (x[1] <= 0.1666666716337204) {
                                                votes[0] += 1;
                                            }

                                            else {
                                                votes[1] += 1;
                                            }
                                        }

                                        else {
                                            votes[0] += 1;
                                        }
                                    }

                                    else {
                                        if (x[0] <= 0.5430622100830078) {
                                            votes[1] += 1;
                                        }

                                        else {
                                            if (x[2] <= 0.08232931420207024) {
                                                if (x[0] <= 0.6913875639438629) {
                                                    votes[1] += 1;
                                                }

                                                else {
                                                    votes[0] += 1;
                                                }
                                            }

                                            else {
                                                votes[0] += 1;
                                            }
                                        }
                                    }
                                }

                                else {
                                    if (x[1] <= 0.5333333313465118) {
                                        votes[0] += 1;
                                    }

                                    else {
                                        votes[1] += 1;
                                    }
                                }
                            }

                            else {
                                if (x[0] <= 0.3181818127632141) {
                                    if (x[1] <= 0.3045976981520653) {
                                        votes[0] += 1;
                                    }

                                    else {
                                        votes[1] += 1;
                                    }
                                }

                                else {
                                    votes[1] += 1;
                                }
                            }
                        }

                        // tree #5
                        if (x[1] <= 0.31551724672317505) {
                            if (x[1] <= 0.24080459773540497) {
                                votes[0] += 1;
                            }

                            else {
                                if (x[6] <= 0.5) {
                                    if (x[1] <= 0.26781609654426575) {
                                        if (x[9] <= 0.5) {
                                            if (x[7] <= 0.5) {
                                                votes[0] += 1;
                                            }

                                            else {
                                                votes[1] += 1;
                                            }
                                        }

                                        else {
                                            votes[0] += 1;
                                        }
                                    }

                                    else {
                                        votes[0] += 1;
                                    }
                                }

                                else {
                                    votes[1] += 1;
                                }
                            }
                        }

                        else {
                            if (x[11] <= 0.5) {
                                if (x[10] <= 0.5) {
                                    if (x[2] <= 0.014056224375963211) {
                                        if (x[1] <= 0.4442528784275055) {
                                            votes[0] += 1;
                                        }

                                        else {
                                            votes[1] += 1;
                                        }
                                    }

                                    else {
                                        if (x[0] <= 0.5287081301212311) {
                                            if (x[1] <= 0.4275861978530884) {
                                                if (x[2] <= 0.062248995527625084) {
                                                    if (x[5] <= 0.5) {
                                                        votes[1] += 1;
                                                    }

                                                    else {
                                                        votes[0] += 1;
                                                    }
                                                }

                                                else {
                                                    votes[1] += 1;
                                                }
                                            }

                                            else {
                                                votes[1] += 1;
                                            }
                                        }

                                        else {
                                            if (x[0] <= 0.5382775068283081) {
                                                votes[0] += 1;
                                            }

                                            else {
                                                votes[1] += 1;
                                            }
                                        }
                                    }
                                }

                                else {
                                    if (x[0] <= 0.5980861485004425) {
                                        votes[1] += 1;
                                    }

                                    else {
                                        if (x[1] <= 0.4879310429096222) {
                                            votes[0] += 1;
                                        }

                                        else {
                                            votes[1] += 1;
                                        }
                                    }
                                }
                            }

                            else {
                                if (x[1] <= 0.6494252979755402) {
                                    if (x[2] <= 0.09437751024961472) {
                                        if (x[0] <= 0.4449760764837265) {
                                            votes[0] += 1;
                                        }

                                        else {
                                            if (x[2] <= 0.07228915579617023) {
                                                if (x[2] <= 0.0502008032053709) {
                                                    votes[0] += 1;
                                                }

                                                else {
                                                    votes[1] += 1;
                                                }
                                            }

                                            else {
                                                votes[0] += 1;
                                            }
                                        }
                                    }

                                    else {
                                        votes[1] += 1;
                                    }
                                }

                                else {
                                    if (x[1] <= 0.8103448152542114) {
                                        if (x[0] <= 0.23444975912570953) {
                                            votes[1] += 1;
                                        }

                                        else {
                                            if (x[2] <= 0.028112448751926422) {
                                                votes[0] += 1;
                                            }

                                            else {
                                                if (x[2] <= 0.056224897503852844) {
                                                    votes[1] += 1;
                                                }

                                                else {
                                                    votes[0] += 1;
                                                }
                                            }
                                        }
                                    }

                                    else {
                                        votes[1] += 1;
                                    }
                                }
                            }
                        }

                        // tree #6
                        if (x[1] <= 0.41781608760356903) {
                            if (x[7] <= 0.5) {
                                if (x[11] <= 0.5) {
                                    if (x[6] <= 0.5) {
                                        if (x[1] <= 0.3609195351600647) {
                                            votes[0] += 1;
                                        }

                                        else {
                                            if (x[3] <= 0.5) {
                                                if (x[9] <= 0.5) {
                                                    if (x[4] <= 0.5) {
                                                        votes[0] += 1;
                                                    }

                                                    else {
                                                        votes[1] += 1;
                                                    }
                                                }

                                                else {
                                                    votes[1] += 1;
                                                }
                                            }

                                            else {
                                                votes[1] += 1;
                                            }
                                        }
                                    }

                                    else {
                                        if (x[2] <= 0.05421686731278896) {
                                            votes[0] += 1;
                                        }

                                        else {
                                            if (x[1] <= 0.1781609170138836) {
                                                votes[0] += 1;
                                            }

                                            else {
                                                if (x[1] <= 0.24655171483755112) {
                                                    if (x[0] <= 0.21052630990743637) {
                                                        votes[1] += 1;
                                                    }

                                                    else {
                                                        votes[0] += 1;
                                                    }
                                                }

                                                else {
                                                    votes[1] += 1;
                                                }
                                            }
                                        }
                                    }
                                }

                                else {
                                    votes[0] += 1;
                                }
                            }

                            else {
                                if (x[1] <= 0.20689655095338821) {
                                    votes[0] += 1;
                                }

                                else {
                                    votes[1] += 1;
                                }
                            }
                        }

                        else {
                            if (x[10] <= 0.5) {
                                if (x[11] <= 0.5) {
                                    votes[1] += 1;
                                }

                                else {
                                    if (x[1] <= 0.6477011740207672) {
                                        if (x[2] <= 0.06425702571868896) {
                                            votes[0] += 1;
                                        }

                                        else {
                                            votes[1] += 1;
                                        }
                                    }

                                    else {
                                        if (x[0] <= 0.11722488142549992) {
                                            votes[0] += 1;
                                        }

                                        else {
                                            if (x[1] <= 0.7643678188323975) {
                                                votes[1] += 1;
                                            }

                                            else {
                                                if (x[0] <= 0.60047847032547) {
                                                    votes[1] += 1;
                                                }

                                                else {
                                                    votes[0] += 1;
                                                }
                                            }
                                        }
                                    }
                                }
                            }

                            else {
                                votes[1] += 1;
                            }
                        }

                        // tree #7
                        if (x[2] <= 0.02208835259079933) {
                            if (x[11] <= 0.5) {
                                if (x[1] <= 0.4362068921327591) {
                                    votes[0] += 1;
                                }

                                else {
                                    votes[1] += 1;
                                }
                            }

                            else {
                                votes[0] += 1;
                            }
                        }

                        else {
                            if (x[1] <= 0.31551724672317505) {
                                if (x[1] <= 0.2063218429684639) {
                                    votes[0] += 1;
                                }

                                else {
                                    if (x[6] <= 0.5) {
                                        if (x[1] <= 0.22356322407722473) {
                                            if (x[2] <= 0.054216865450143814) {
                                                votes[0] += 1;
                                            }

                                            else {
                                                votes[1] += 1;
                                            }
                                        }

                                        else {
                                            if (x[2] <= 0.026104417629539967) {
                                                if (x[3] <= 0.5) {
                                                    votes[1] += 1;
                                                }

                                                else {
                                                    votes[0] += 1;
                                                }
                                            }

                                            else {
                                                if (x[7] <= 0.5) {
                                                    votes[0] += 1;
                                                }

                                                else {
                                                    votes[1] += 1;
                                                }
                                            }
                                        }
                                    }

                                    else {
                                        if (x[2] <= 0.062248995527625084) {
                                            votes[1] += 1;
                                        }

                                        else {
                                            if (x[2] <= 0.07429718598723412) {
                                                if (x[0] <= 0.24880382418632507) {
                                                    votes[1] += 1;
                                                }

                                                else {
                                                    if (x[0] <= 0.36602869629859924) {
                                                        votes[0] += 1;
                                                    }

                                                    else {
                                                        votes[1] += 1;
                                                    }
                                                }
                                            }

                                            else {
                                                votes[1] += 1;
                                            }
                                        }
                                    }
                                }
                            }

                            else {
                                if (x[5] <= 0.5) {
                                    if (x[2] <= 0.08232931420207024) {
                                        if (x[6] <= 0.5) {
                                            if (x[9] <= 0.5) {
                                                if (x[11] <= 0.5) {
                                                    if (x[4] <= 0.5) {
                                                        if (x[0] <= 0.6267942488193512) {
                                                            votes[1] += 1;
                                                        }

                                                        else {
                                                            if (x[1] <= 0.5143678188323975) {
                                                                votes[0] += 1;
                                                            }

                                                            else {
                                                                votes[1] += 1;
                                                            }
                                                        }
                                                    }

                                                    else {
                                                        votes[1] += 1;
                                                    }
                                                }

                                                else {
                                                    if (x[0] <= 0.09090909361839294) {
                                                        votes[0] += 1;
                                                    }

                                                    else {
                                                        if (x[1] <= 0.6534482836723328) {
                                                            if (x[2] <= 0.03413654491305351) {
                                                                votes[1] += 1;
                                                            }

                                                            else {
                                                                if (x[0] <= 0.39952152967453003) {
                                                                    votes[0] += 1;
                                                                }

                                                                else {
                                                                    if (x[0] <= 0.6291866153478622) {
                                                                        votes[1] += 1;
                                                                    }

                                                                    else {
                                                                        votes[0] += 1;
                                                                    }
                                                                }
                                                            }
                                                        }

                                                        else {
                                                            votes[1] += 1;
                                                        }
                                                    }
                                                }
                                            }

                                            else {
                                                if (x[0] <= 0.17703349888324738) {
                                                    votes[1] += 1;
                                                }

                                                else {
                                                    if (x[0] <= 0.19856459647417068) {
                                                        votes[0] += 1;
                                                    }

                                                    else {
                                                        votes[1] += 1;
                                                    }
                                                }
                                            }
                                        }

                                        else {
                                            votes[1] += 1;
                                        }
                                    }

                                    else {
                                        votes[1] += 1;
                                    }
                                }

                                else {
                                    if (x[2] <= 0.04216867312788963) {
                                        if (x[0] <= 0.26555024087429047) {
                                            votes[1] += 1;
                                        }

                                        else {
                                            votes[0] += 1;
                                        }
                                    }

                                    else {
                                        if (x[2] <= 0.0502008032053709) {
                                            votes[1] += 1;
                                        }

                                        else {
                                            if (x[2] <= 0.05622490122914314) {
                                                votes[0] += 1;
                                            }

                                            else {
                                                votes[1] += 1;
                                            }
                                        }
                                    }
                                }
                            }
                        }

                        // tree #8
                        if (x[2] <= 0.062248995527625084) {
                            if (x[9] <= 0.5) {
                                if (x[2] <= 0.01807228848338127) {
                                    if (x[10] <= 0.5) {
                                        if (x[2] <= 0.014056224375963211) {
                                            if (x[0] <= 0.43062201142311096) {
                                                if (x[2] <= 0.01004016026854515) {
                                                    votes[0] += 1;
                                                }

                                                else {
                                                    if (x[0] <= 0.12679425813257694) {
                                                        votes[0] += 1;
                                                    }

                                                    else {
                                                        if (x[1] <= 0.5011494159698486) {
                                                            votes[0] += 1;
                                                        }

                                                        else {
                                                            votes[1] += 1;
                                                        }
                                                    }
                                                }
                                            }

                                            else {
                                                if (x[8] <= 0.5) {
                                                    votes[0] += 1;
                                                }

                                                else {
                                                    votes[1] += 1;
                                                }
                                            }
                                        }

                                        else {
                                            if (x[1] <= 0.43505747616291046) {
                                                votes[0] += 1;
                                            }

                                            else {
                                                votes[1] += 1;
                                            }
                                        }
                                    }

                                    else {
                                        if (x[2] <= 0.014056224375963211) {
                                            if (x[0] <= 0.2081339731812477) {
                                                votes[1] += 1;
                                            }

                                            else {
                                                votes[0] += 1;
                                            }
                                        }

                                        else {
                                            votes[0] += 1;
                                        }
                                    }
                                }

                                else {
                                    if (x[6] <= 0.5) {
                                        if (x[4] <= 0.5) {
                                            if (x[1] <= 0.33620689809322357) {
                                                if (x[1] <= 0.31551724672317505) {
                                                    votes[0] += 1;
                                                }

                                                else {
                                                    if (x[2] <= 0.0401606410741806) {
                                                        votes[0] += 1;
                                                    }

                                                    else {
                                                        if (x[7] <= 0.5) {
                                                            votes[0] += 1;
                                                        }

                                                        else {
                                                            votes[1] += 1;
                                                        }
                                                    }
                                                }
                                            }

                                            else {
                                                if (x[1] <= 0.4241379350423813) {
                                                    if (x[2] <= 0.030120481736958027) {
                                                        votes[0] += 1;
                                                    }

                                                    else {
                                                        if (x[2] <= 0.03413654491305351) {
                                                            votes[1] += 1;
                                                        }

                                                        else {
                                                            if (x[3] <= 0.5) {
                                                                if (x[7] <= 0.5) {
                                                                    if (x[2] <= 0.04417670704424381) {
                                                                        if (x[5] <= 0.5) {
                                                                            if (x[11] <= 0.5) {
                                                                                votes[1] += 1;
                                                                            }

                                                                            else {
                                                                                votes[0] += 1;
                                                                            }
                                                                        }

                                                                        else {
                                                                            votes[0] += 1;
                                                                        }
                                                                    }

                                                                    else {
                                                                        votes[0] += 1;
                                                                    }
                                                                }

                                                                else {
                                                                    votes[1] += 1;
                                                                }
                                                            }

                                                            else {
                                                                votes[1] += 1;
                                                            }
                                                        }
                                                    }
                                                }

                                                else {
                                                    if (x[0] <= 0.0550239235162735) {
                                                        if (x[11] <= 0.5) {
                                                            votes[1] += 1;
                                                        }

                                                        else {
                                                            votes[0] += 1;
                                                        }
                                                    }

                                                    else {
                                                        if (x[2] <= 0.05823293328285217) {
                                                            if (x[5] <= 0.5) {
                                                                if (x[8] <= 0.5) {
                                                                    if (x[2] <= 0.03413654491305351) {
                                                                        votes[1] += 1;
                                                                    }

                                                                    else {
                                                                        if (x[2] <= 0.03815260902047157) {
                                                                            if (x[1] <= 0.7011494040489197) {
                                                                                votes[0] += 1;
                                                                            }

                                                                            else {
                                                                                votes[1] += 1;
                                                                            }
                                                                        }

                                                                        else {
                                                                            if (x[10] <= 0.5) {
                                                                                if (x[0] <= 0.5502392500638962) {
                                                                                    votes[1] += 1;
                                                                                }

                                                                                else {
                                                                                    votes[0] += 1;
                                                                                }
                                                                            }

                                                                            else {
                                                                                votes[1] += 1;
                                                                            }
                                                                        }
                                                                    }
                                                                }

                                                                else {
                                                                    votes[1] += 1;
                                                                }
                                                            }

                                                            else {
                                                                votes[1] += 1;
                                                            }
                                                        }

                                                        else {
                                                            votes[0] += 1;
                                                        }
                                                    }
                                                }
                                            }
                                        }

                                        else {
                                            if (x[2] <= 0.02208835259079933) {
                                                if (x[0] <= 0.33732057362794876) {
                                                    if (x[0] <= 0.22727272659540176) {
                                                        votes[0] += 1;
                                                    }

                                                    else {
                                                        votes[1] += 1;
                                                    }
                                                }

                                                else {
                                                    votes[0] += 1;
                                                }
                                            }

                                            else {
                                                if (x[0] <= 0.050239235162734985) {
                                                    if (x[1] <= 0.21954023838043213) {
                                                        votes[0] += 1;
                                                    }

                                                    else {
                                                        votes[1] += 1;
                                                    }
                                                }

                                                else {
                                                    votes[1] += 1;
                                                }
                                            }
                                        }
                                    }

                                    else {
                                        if (x[0] <= 0.1866028681397438) {
                                            votes[1] += 1;
                                        }

                                        else {
                                            votes[0] += 1;
                                        }
                                    }
                                }
                            }

                            else {
                                if (x[2] <= 0.046184737235307693) {
                                    if (x[1] <= 0.49425289034843445) {
                                        votes[0] += 1;
                                    }

                                    else {
                                        votes[1] += 1;
                                    }
                                }

                                else {
                                    votes[0] += 1;
                                }
                            }
                        }

                        else {
                            if (x[2] <= 0.0863453783094883) {
                                if (x[0] <= 0.48564593493938446) {
                                    if (x[1] <= 0.16206897050142288) {
                                        votes[0] += 1;
                                    }

                                    else {
                                        if (x[6] <= 0.5) {
                                            if (x[9] <= 0.5) {
                                                if (x[7] <= 0.5) {
                                                    if (x[1] <= 0.6408045887947083) {
                                                        votes[0] += 1;
                                                    }

                                                    else {
                                                        votes[1] += 1;
                                                    }
                                                }

                                                else {
                                                    votes[1] += 1;
                                                }
                                            }

                                            else {
                                                votes[1] += 1;
                                            }
                                        }

                                        else {
                                            votes[1] += 1;
                                        }
                                    }
                                }

                                else {
                                    if (x[2] <= 0.066265057772398) {
                                        votes[0] += 1;
                                    }

                                    else {
                                        if (x[2] <= 0.07028112187981606) {
                                            votes[1] += 1;
                                        }

                                        else {
                                            if (x[11] <= 0.5) {
                                                votes[1] += 1;
                                            }

                                            else {
                                                if (x[0] <= 0.5837320387363434) {
                                                    if (x[0] <= 0.509569376707077) {
                                                        votes[0] += 1;
                                                    }

                                                    else {
                                                        votes[1] += 1;
                                                    }
                                                }

                                                else {
                                                    votes[0] += 1;
                                                }
                                            }
                                        }
                                    }
                                }
                            }

                            else {
                                votes[1] += 1;
                            }
                        }

                        // tree #9
                        if (x[1] <= 0.31551724672317505) {
                            if (x[2] <= 0.05823293328285217) {
                                if (x[7] <= 0.5) {
                                    if (x[1] <= 0.26379311084747314) {
                                        votes[0] += 1;
                                    }

                                    else {
                                        if (x[2] <= 0.01807228848338127) {
                                            votes[0] += 1;
                                        }

                                        else {
                                            if (x[4] <= 0.5) {
                                                votes[0] += 1;
                                            }

                                            else {
                                                votes[1] += 1;
                                            }
                                        }
                                    }
                                }

                                else {
                                    if (x[1] <= 0.20689655095338821) {
                                        votes[0] += 1;
                                    }

                                    else {
                                        votes[1] += 1;
                                    }
                                }
                            }

                            else {
                                if (x[1] <= 0.22758620232343674) {
                                    votes[0] += 1;
                                }

                                else {
                                    if (x[11] <= 0.5) {
                                        if (x[2] <= 0.062248995527625084) {
                                            votes[1] += 1;
                                        }

                                        else {
                                            if (x[0] <= 0.36602869629859924) {
                                                votes[0] += 1;
                                            }

                                            else {
                                                votes[1] += 1;
                                            }
                                        }
                                    }

                                    else {
                                        votes[0] += 1;
                                    }
                                }
                            }
                        }

                        else {
                            if (x[1] <= 0.39022988080978394) {
                                if (x[4] <= 0.5) {
                                    if (x[0] <= 0.03349282406270504) {
                                        votes[1] += 1;
                                    }

                                    else {
                                        if (x[5] <= 0.5) {
                                            if (x[10] <= 0.5) {
                                                if (x[7] <= 0.5) {
                                                    if (x[1] <= 0.3574712723493576) {
                                                        votes[0] += 1;
                                                    }

                                                    else {
                                                        if (x[11] <= 0.5) {
                                                            if (x[3] <= 0.5) {
                                                                if (x[0] <= 0.25119616836309433) {
                                                                    votes[0] += 1;
                                                                }

                                                                else {
                                                                    if (x[8] <= 0.5) {
                                                                        votes[1] += 1;
                                                                    }

                                                                    else {
                                                                        votes[0] += 1;
                                                                    }
                                                                }
                                                            }

                                                            else {
                                                                votes[1] += 1;
                                                            }
                                                        }

                                                        else {
                                                            votes[1] += 1;
                                                        }
                                                    }
                                                }

                                                else {
                                                    votes[1] += 1;
                                                }
                                            }

                                            else {
                                                votes[0] += 1;
                                            }
                                        }

                                        else {
                                            votes[0] += 1;
                                        }
                                    }
                                }

                                else {
                                    votes[1] += 1;
                                }
                            }

                            else {
                                if (x[7] <= 0.5) {
                                    if (x[0] <= 0.5550239384174347) {
                                        if (x[2] <= 0.03413654491305351) {
                                            if (x[1] <= 0.6540229916572571) {
                                                votes[1] += 1;
                                            }

                                            else {
                                                if (x[2] <= 0.024096385575830936) {
                                                    votes[0] += 1;
                                                }

                                                else {
                                                    votes[1] += 1;
                                                }
                                            }
                                        }

                                        else {
                                            if (x[10] <= 0.5) {
                                                if (x[11] <= 0.5) {
                                                    if (x[6] <= 0.5) {
                                                        if (x[5] <= 0.5) {
                                                            votes[1] += 1;
                                                        }

                                                        else {
                                                            if (x[2] <= 0.0502008032053709) {
                                                                votes[1] += 1;
                                                            }

                                                            else {
                                                                if (x[1] <= 0.5212643593549728) {
                                                                    votes[0] += 1;
                                                                }

                                                                else {
                                                                    votes[1] += 1;
                                                                }
                                                            }
                                                        }
                                                    }

                                                    else {
                                                        votes[1] += 1;
                                                    }
                                                }

                                                else {
                                                    if (x[0] <= 0.08133971318602562) {
                                                        votes[0] += 1;
                                                    }

                                                    else {
                                                        if (x[0] <= 0.17464114725589752) {
                                                            votes[1] += 1;
                                                        }

                                                        else {
                                                            if (x[1] <= 0.6494252979755402) {
                                                                if (x[1] <= 0.5344827473163605) {
                                                                    votes[0] += 1;
                                                                }

                                                                else {
                                                                    if (x[0] <= 0.39952152967453003) {
                                                                        votes[0] += 1;
