#pragma once
#include <cstdarg>
namespace Eloquent {
    namespace ML {
        namespace Port {
            class RandomForest {
                public:
                    /**
                    * Predict class for features vector
                    */
                    int predict(float *x) {
                        uint8_t votes[2] = { 0 };
                        // tree #1
                        if (x[3] <= 0.5535714328289032) {
                            if (x[3] <= 0.1964285746216774) {
                                if (x[2] <= 0.43505747616291046) {
                                    if (x[3] <= 0.160714291036129) {
                                        votes[0] += 1;
                                    }

                                    else {
                                        if (x[2] <= 0.36666667461395264) {
                                            votes[0] += 1;
                                        }

                                        else {
                                            votes[1] += 1;
                                        }
                                    }
                                }

                                else {
                                    if (x[2] <= 0.6436781585216522) {
                                        votes[1] += 1;
                                    }

                                    else {
                                        votes[0] += 1;
                                    }
                                }
                            }

                            else {
                                if (x[0] <= 0.1875) {
                                    if (x[2] <= 0.6086207032203674) {
                                        if (x[1] <= 0.10047847032546997) {
                                            if (x[3] <= 0.3035714328289032) {
                                                if (x[1] <= 0.06459330208599567) {
                                                    votes[0] += 1;
                                                }

                                                else {
                                                    votes[1] += 1;
                                                }
                                            }

                                            else {
                                                votes[0] += 1;
                                            }
                                        }

                                        else {
                                            votes[0] += 1;
                                        }
                                    }

                                    else {
                                        if (x[1] <= 0.6578947305679321) {
                                            if (x[2] <= 0.6310344636440277) {
                                                if (x[3] <= 0.3035714328289032) {
                                                    votes[1] += 1;
                                                }

                                                else {
                                                    votes[0] += 1;
                                                }
                                            }

                                            else {
                                                votes[1] += 1;
                                            }
                                        }

                                        else {
                                            votes[0] += 1;
                                        }
                                    }
                                }

                                else {
                                    if (x[2] <= 0.23620689660310745) {
                                        votes[0] += 1;
                                    }

                                    else {
                                        if (x[2] <= 0.2867816090583801) {
                                            if (x[0] <= 0.625) {
                                                votes[1] += 1;
                                            }

                                            else {
                                                votes[0] += 1;
                                            }
                                        }

                                        else {
                                            if (x[3] <= 0.4821428507566452) {
                                                if (x[3] <= 0.2321428582072258) {
                                                    if (x[1] <= 0.5191387683153152) {
                                                        votes[1] += 1;
                                                    }

                                                    else {
                                                        votes[0] += 1;
                                                    }
                                                }

                                                else {
                                                    votes[1] += 1;
                                                }
                                            }

                                            else {
                                                if (x[1] <= 0.5502392202615738) {
                                                    votes[1] += 1;
                                                }

                                                else {
                                                    votes[0] += 1;
                                                }
                                            }
                                        }
                                    }
                                }
                            }
                        }

                        else {
                            if (x[0] <= 0.1875) {
                                if (x[2] <= 0.49425287544727325) {
                                    votes[0] += 1;
                                }

                                else {
                                    if (x[3] <= 0.7321428656578064) {
                                        votes[1] += 1;
                                    }

                                    else {
                                        if (x[1] <= 0.5334928333759308) {
                                            votes[1] += 1;
                                        }

                                        else {
                                            votes[0] += 1;
                                        }
                                    }
                                }
                            }

                            else {
                                if (x[2] <= 0.24655171483755112) {
                                    if (x[1] <= 0.007177033461630344) {
                                        votes[1] += 1;
                                    }

                                    else {
                                        votes[0] += 1;
                                    }
                                }

                                else {
                                    votes[1] += 1;
                                }
                            }
                        }

                        // tree #2
                        if (x[2] <= 0.26321838796138763) {
                            if (x[2] <= 0.2063218429684639) {
                                votes[0] += 1;
                            }

                            else {
                                if (x[0] <= 0.3125) {
                                    votes[0] += 1;
                                }

                                else {
                                    if (x[3] <= 0.3392857164144516) {
                                        votes[0] += 1;
                                    }

                                    else {
                                        if (x[0] <= 0.625) {
                                            if (x[0] <= 0.4375) {
                                                if (x[1] <= 0.1674641091376543) {
                                                    votes[1] += 1;
                                                }

                                                else {
                                                    if (x[3] <= 0.6071428656578064) {
                                                        votes[0] += 1;
                                                    }

                                                    else {
                                                        votes[1] += 1;
                                                    }
                                                }
                                            }

                                            else {
                                                votes[1] += 1;
                                            }
                                        }

                                        else {
                                            votes[0] += 1;
                                        }
                                    }
                                }
                            }
                        }

                        else {
                            if (x[0] <= 0.1875) {
                                if (x[3] <= 0.4107142835855484) {
                                    if (x[2] <= 0.5804597735404968) {
                                        votes[0] += 1;
                                    }

                                    else {
                                        if (x[0] <= 0.0625) {
                                            if (x[3] <= 0.3035714328289032) {
                                                if (x[1] <= 0.2679425776004791) {
                                                    votes[0] += 1;
                                                }

                                                else {
                                                    votes[1] += 1;
                                                }
                                            }

                                            else {
                                                votes[0] += 1;
                                            }
                                        }

                                        else {
                                            votes[1] += 1;
                                        }
                                    }
                                }

                                else {
                                    if (x[2] <= 0.6367816030979156) {
                                        if (x[1] <= 0.38755981624126434) {
                                            votes[0] += 1;
                                        }

                                        else {
                                            if (x[2] <= 0.5925287306308746) {
                                                votes[1] += 1;
                                            }

                                            else {
                                                votes[0] += 1;
                                            }
                                        }
                                    }

                                    else {
                                        votes[1] += 1;
                                    }
                                }
                            }

                            else {
                                if (x[1] <= 0.5119617283344269) {
                                    if (x[1] <= 0.15071769803762436) {
                                        votes[1] += 1;
                                    }

                                    else {
                                        if (x[2] <= 0.3931034505367279) {
                                            if (x[0] <= 0.5625) {
                                                if (x[3] <= 0.2321428544819355) {
                                                    votes[0] += 1;
                                                }

                                                else {
                                                    votes[1] += 1;
                                                }
                                            }

                                            else {
                                                if (x[0] <= 0.8125) {
                                                    votes[0] += 1;
                                                }

                                                else {
                                                    votes[1] += 1;
                                                }
                                            }
                                        }

                                        else {
                                            votes[1] += 1;
                                        }
                                    }
                                }

                                else {
                                    if (x[2] <= 0.477011501789093) {
                                        votes[0] += 1;
                                    }

                                    else {
                                        votes[1] += 1;
                                    }
                                }
                            }
                        }

                        // tree #3
                        if (x[2] <= 0.3574712723493576) {
                            if (x[3] <= 0.5535714328289032) {
                                if (x[1] <= 0.0047846888191998005) {
                                    votes[1] += 1;
                                }

                                else {
                                    if (x[2] <= 0.23620689660310745) {
                                        votes[0] += 1;
                                    }

                                    else {
                                        if (x[2] <= 0.24655171483755112) {
                                            if (x[3] <= 0.2678571417927742) {
                                                votes[0] += 1;
                                            }

                                            else {
                                                if (x[0] <= 0.5625) {
                                                    votes[1] += 1;
                                                }

                                                else {
                                                    votes[0] += 1;
                                                }
                                            }
                                        }

                                        else {
                                            if (x[1] <= 0.04545454680919647) {
                                                if (x[2] <= 0.27873562276363373) {
                                                    votes[0] += 1;
                                                }

                                                else {
                                                    votes[1] += 1;
                                                }
                                            }

                                            else {
                                                votes[0] += 1;
                                            }
                                        }
                                    }
                                }
                            }

                            else {
                                if (x[2] <= 0.1666666716337204) {
                                    votes[0] += 1;
                                }

                                else {
                                    if (x[0] <= 0.1875) {
                                        votes[0] += 1;
                                    }

                                    else {
                                        votes[1] += 1;
                                    }
                                }
                            }
                        }

                        else {
                            if (x[1] <= 0.6842105090618134) {
                                if (x[3] <= 0.375) {
                                    if (x[2] <= 0.3931034505367279) {
                                        if (x[1] <= 0.06220095697790384) {
                                            votes[1] += 1;
                                        }

                                        else {
                                            if (x[0] <= 0.75) {
                                                votes[0] += 1;
                                            }

                                            else {
                                                votes[1] += 1;
                                            }
                                        }
                                    }

                                    else {
                                        if (x[0] <= 0.0625) {
                                            if (x[2] <= 0.7988505959510803) {
                                                if (x[2] <= 0.6436781585216522) {
                                                    votes[0] += 1;
                                                }

                                                else {
                                                    if (x[3] <= 0.2142857164144516) {
                                                        votes[0] += 1;
                                                    }

                                                    else {
                                                        votes[1] += 1;
                                                    }
                                                }
                                            }

                                            else {
                                                votes[1] += 1;
                                            }
                                        }

                                        else {
                                            if (x[1] <= 0.5358851850032806) {
                                                votes[1] += 1;
                                            }

                                            else {
                                                votes[0] += 1;
                                            }
                                        }
                                    }
                                }

                                else {
                                    if (x[1] <= 0.03588516730815172) {
                                        if (x[2] <= 0.4080459773540497) {
                                            votes[1] += 1;
                                        }

                                        else {
                                            votes[0] += 1;
                                        }
                                    }

                                    else {
                                        if (x[3] <= 0.7321428656578064) {
                                            votes[1] += 1;
                                        }

                                        else {
                                            if (x[0] <= 0.1875) {
                                                if (x[1] <= 0.5334928333759308) {
                                                    votes[1] += 1;
                                                }

                                                else {
                                                    votes[0] += 1;
                                                }
                                            }

                                            else {
                                                votes[1] += 1;
                                            }
                                        }
                                    }
                                }
                            }

                            else {
                                if (x[1] <= 0.7272727191448212) {
                                    if (x[2] <= 0.5339080393314362) {
                                        votes[0] += 1;
                                    }

                                    else {
                                        votes[1] += 1;
                                    }
                                }

                                else {
                                    if (x[2] <= 0.5143678039312363) {
                                        votes[0] += 1;
                                    }

                                    else {
                                        votes[1] += 1;
                                    }
                                }
                            }
                        }

                        // tree #4
                        if (x[2] <= 0.3419540226459503) {
                            if (x[0] <= 0.5625) {
                                if (x[2] <= 0.23620689660310745) {
                                    votes[0] += 1;
                                }

                                else {
                                    if (x[3] <= 0.3571428507566452) {
                                        votes[0] += 1;
                                    }

                                    else {
                                        if (x[0] <= 0.1875) {
                                            votes[0] += 1;
                                        }

                                        else {
                                            if (x[1] <= 0.2751196101307869) {
                                                votes[1] += 1;
                                            }

                                            else {
                                                if (x[2] <= 0.25114942342042923) {
                                                    votes[0] += 1;
                                                }

                                                else {
                                                    votes[1] += 1;
                                                }
                                            }
                                        }
                                    }
                                }
                            }

                            else {
                                votes[0] += 1;
                            }
                        }

                        else {
                            if (x[2] <= 0.42298850417137146) {
                                if (x[1] <= 0.29904305934906006) {
                                    if (x[3] <= 0.1964285746216774) {
                                        votes[0] += 1;
                                    }

                                    else {
                                        if (x[2] <= 0.3534482717514038) {
                                            if (x[0] <= 0.25) {
                                                votes[0] += 1;
                                            }

                                            else {
                                                votes[1] += 1;
                                            }
                                        }

                                        else {
                                            if (x[0] <= 0.1875) {
                                                if (x[2] <= 0.3689655214548111) {
                                                    votes[1] += 1;
                                                }

                                                else {
                                                    votes[0] += 1;
                                                }
                                            }

                                            else {
                                                votes[1] += 1;
                                            }
                                        }
                                    }
                                }

                                else {
                                    if (x[3] <= 0.5535714328289032) {
                                        if (x[1] <= 0.4019138664007187) {
                                            votes[0] += 1;
                                        }

                                        else {
                                            if (x[2] <= 0.373563215136528) {
                                                votes[1] += 1;
                                            }

                                            else {
                                                votes[0] += 1;
                                            }
                                        }
                                    }

                                    else {
                                        if (x[0] <= 0.6875) {
                                            votes[1] += 1;
                                        }

                                        else {
                                            votes[0] += 1;
                                        }
                                    }
                                }
                            }

                            else {
                                if (x[1] <= 0.02631578966975212) {
                                    votes[0] += 1;
                                }

                                else {
                                    if (x[2] <= 0.9597701132297516) {
                                        if (x[1] <= 0.09090909361839294) {
                                            if (x[2] <= 0.5620689690113068) {
                                                votes[1] += 1;
                                            }

                                            else {
                                                if (x[2] <= 0.6103448271751404) {
                                                    votes[0] += 1;
                                                }

                                                else {
                                                    votes[1] += 1;
                                                }
                                            }
                                        }

                                        else {
                                            if (x[2] <= 0.5557471215724945) {
                                                if (x[0] <= 0.125) {
                                                    if (x[1] <= 0.22966507077217102) {
                                                        votes[1] += 1;
                                                    }

                                                    else {
                                                        votes[0] += 1;
                                                    }
                                                }

                                                else {
                                                    votes[1] += 1;
                                                }
                                            }

                                            else {
                                                votes[1] += 1;
                                            }
                                        }
                                    }

                                    else {
                                        if (x[2] <= 0.9942528605461121) {
                                            votes[0] += 1;
                                        }

                                        else {
                                            votes[1] += 1;
                                        }
                                    }
                                }
                            }
                        }

                        // tree #5
                        if (x[3] <= 0.4464285671710968) {
                            if (x[2] <= 0.4275862127542496) {
                                if (x[2] <= 0.2931034415960312) {
                                    if (x[2] <= 0.26321838796138763) {
                                        votes[0] += 1;
                                    }

                                    else {
                                        if (x[3] <= 0.2321428582072258) {
                                            if (x[3] <= 0.1428571455180645) {
                                                votes[0] += 1;
                                            }

                                            else {
                                                votes[1] += 1;
                                            }
                                        }

                                        else {
                                            votes[0] += 1;
                                        }
                                    }
                                }

                                else {
                                    if (x[0] <= 0.5625) {
                                        if (x[0] <= 0.1875) {
                                            if (x[1] <= 0.10047847032546997) {
                                                if (x[2] <= 0.3574712723493576) {
                                                    votes[0] += 1;
                                                }

                                                else {
                                                    votes[1] += 1;
                                                }
                                            }

                                            else {
                                                votes[0] += 1;
                                            }
                                        }

                                        else {
                                            votes[1] += 1;
                                        }
                                    }

                                    else {
                                        if (x[2] <= 0.3839080482721329) {
                                            votes[0] += 1;
                                        }

                                        else {
                                            if (x[1] <= 0.3349282294511795) {
                                                if (x[0] <= 0.75) {
                                                    votes[0] += 1;
                                                }

                                                else {
                                                    votes[1] += 1;
                                                }
                                            }

                                            else {
                                                votes[0] += 1;
                                            }
                                        }
                                    }
                                }
                            }

                            else {
                                if (x[1] <= 0.6578947305679321) {
                                    if (x[0] <= 0.0625) {
                                        if (x[2] <= 0.6091954112052917) {
                                            votes[0] += 1;
                                        }

                                        else {
                                            votes[1] += 1;
                                        }
                                    }

                                    else {
                                        votes[1] += 1;
                                    }
                                }

                                else {
                                    votes[0] += 1;
                                }
                            }
                        }

                        else {
                            if (x[2] <= 0.1781609207391739) {
                                votes[0] += 1;
                            }

                            else {
                                if (x[2] <= 0.4000000059604645) {
                                    if (x[2] <= 0.38275861740112305) {
                                        if (x[0] <= 0.1875) {
                                            votes[0] += 1;
                                        }

                                        else {
                                            if (x[0] <= 0.625) {
                                                votes[1] += 1;
                                            }

                                            else {
                                                votes[0] += 1;
                                            }
                                        }
                                    }

                                    else {
                                        if (x[1] <= 0.4928229749202728) {
                                            votes[1] += 1;
                                        }

                                        else {
                                            votes[0] += 1;
                                        }
                                    }
                                }

                                else {
                                    if (x[3] <= 0.5535714328289032) {
                                        if (x[1] <= 0.11961722373962402) {
                                            votes[0] += 1;
                                        }

                                        else {
                                            votes[1] += 1;
                                        }
                                    }

                                    else {
                                        votes[1] += 1;
                                    }
                                }
                            }
                        }

                        // tree #6
                        if (x[2] <= 0.2931034415960312) {
                            if (x[2] <= 0.24080459773540497) {
                                if (x[1] <= 0.007177033461630344) {
                                    votes[1] += 1;
                                }

                                else {
                                    votes[0] += 1;
                                }
                            }

                            else {
                                if (x[3] <= 0.3571428507566452) {
                                    votes[0] += 1;
                                }

                                else {
                                    if (x[1] <= 0.5119617134332657) {
                                        if (x[3] <= 0.4464285671710968) {
                                            votes[1] += 1;
                                        }

                                        else {
                                            if (x[1] <= 0.11244019120931625) {
                                                votes[0] += 1;
                                            }

                                            else {
                                                if (x[3] <= 0.5535714328289032) {
                                                    votes[1] += 1;
                                                }

                                                else {
                                                    if (x[2] <= 0.24655171483755112) {
                                                        votes[0] += 1;
                                                    }

                                                    else {
                                                        votes[1] += 1;
                                                    }
                                                }
                                            }
                                        }
                                    }

                                    else {
                                        votes[0] += 1;
                                    }
                                }
                            }
                        }

                        else {
                            if (x[0] <= 0.1875) {
                                if (x[2] <= 0.6086207032203674) {
                                    if (x[2] <= 0.3689655214548111) {
                                        if (x[2] <= 0.3574712723493576) {
                                            votes[0] += 1;
                                        }

                                        else {
                                            votes[1] += 1;
                                        }
                                    }

                                    else {
                                        votes[0] += 1;
                                    }
                                }

                                else {
                                    if (x[1] <= 0.02631578966975212) {
                                        votes[0] += 1;
                                    }

                                    else {
                                        if (x[1] <= 0.5167464166879654) {
                                            if (x[2] <= 0.6310344636440277) {
                                                if (x[1] <= 0.2535885125398636) {
                                                    votes[1] += 1;
                                                }

                                                else {
                                                    votes[0] += 1;
                                                }
                                            }

                                            else {
                                                votes[1] += 1;
                                            }
                                        }

                                        else {
                                            if (x[3] <= 0.7321428656578064) {
                                                votes[1] += 1;
                                            }

                                            else {
                                                votes[0] += 1;
                                            }
                                        }
                                    }
                                }
                            }

                            else {
                                if (x[1] <= 0.4999999850988388) {
                                    if (x[2] <= 0.39022988080978394) {
                                        if (x[2] <= 0.3879310339689255) {
                                            if (x[0] <= 0.5625) {
                                                votes[1] += 1;
                                            }

                                            else {
                                                if (x[0] <= 0.6875) {
                                                    votes[0] += 1;
                                                }

                                                else {
                                                    if (x[0] <= 0.8125) {
                                                        if (x[2] <= 0.35057471692562103) {
                                                            votes[0] += 1;
                                                        }

                                                        else {
                                                            votes[1] += 1;
                                                        }
                                                    }

                                                    else {
                                                        votes[1] += 1;
                                                    }
                                                }
                                            }
                                        }

                                        else {
                                            votes[0] += 1;
                                        }
                                    }

                                    else {
                                        votes[1] += 1;
                                    }
                                }

                                else {
                                    if (x[2] <= 0.5350574851036072) {
                                        votes[0] += 1;
                                    }

                                    else {
                                        votes[1] += 1;
                                    }
                                }
                            }
                        }

                        // tree #7
                        if (x[1] <= 0.1315789446234703) {
                            if (x[2] <= 0.26379311084747314) {
                                if (x[1] <= 0.0047846888191998005) {
                                    votes[1] += 1;
                                }

                                else {
                                    if (x[2] <= 0.23620689660310745) {
                                        votes[0] += 1;
                                    }

                                    else {
                                        if (x[3] <= 0.2678571417927742) {
                                            votes[0] += 1;
                                        }

                                        else {
                                            if (x[1] <= 0.01913875574246049) {
                                                votes[0] += 1;
                                            }

                                            else {
                                                if (x[2] <= 0.25229885429143906) {
                                                    votes[1] += 1;
                                                }

                                                else {
                                                    votes[0] += 1;
                                                }
                                            }
                                        }
                                    }
                                }
                            }

                            else {
                                if (x[0] <= 0.1875) {
                                    if (x[1] <= 0.110047847032547) {
                                        if (x[2] <= 0.5247126370668411) {
                                            if (x[3] <= 0.321428582072258) {
                                                if (x[2] <= 0.31149426102638245) {
                                                    votes[0] += 1;
                                                }

                                                else {
                                                    votes[1] += 1;
                                                }
                                            }

                                            else {
                                                votes[0] += 1;
                                            }
                                        }

                                        else {
                                            votes[1] += 1;
                                        }
                                    }

                                    else {
                                        votes[1] += 1;
                                    }
                                }

                                else {
                                    if (x[3] <= 0.1071428619325161) {
                                        votes[0] += 1;
                                    }

                                    else {
                                        votes[1] += 1;
                                    }
                                }
                            }
                        }

                        else {
                            if (x[3] <= 0.4464285671710968) {
                                if (x[2] <= 0.3620689660310745) {
                                    if (x[2] <= 0.3448275923728943) {
                                        votes[0] += 1;
                                    }

                                    else {
                                        if (x[1] <= 0.49043063819408417) {
                                            votes[0] += 1;
                                        }

                                        else {
                                            votes[1] += 1;
                                        }
                                    }
                                }

                                else {
                                    if (x[2] <= 0.5557471215724945) {
                                        if (x[3] <= 0.3035714328289032) {
                                            if (x[3] <= 0.1428571455180645) {
                                                votes[0] += 1;
                                            }

                                            else {
                                                if (x[2] <= 0.49827586114406586) {
                                                    votes[1] += 1;
                                                }

                                                else {
                                                    if (x[0] <= 0.5625) {
                                                        if (x[2] <= 0.5109195411205292) {
                                                            votes[0] += 1;
                                                        }

                                                        else {
                                                            votes[1] += 1;
                                                        }
                                                    }

                                                    else {
                                                        votes[1] += 1;
                                                    }
                                                }
                                            }
                                        }

                                        else {
                                            if (x[0] <= 0.5625) {
                                                votes[0] += 1;
                                            }

                                            else {
                                                votes[1] += 1;
                                            }
                                        }
                                    }

                                    else {
                                        if (x[2] <= 0.6264367699623108) {
                                            if (x[3] <= 0.3035714328289032) {
                                                votes[1] += 1;
                                            }

                                            else {
                                                if (x[2] <= 0.6149425208568573) {
                                                    votes[1] += 1;
                                                }

                                                else {
                                                    votes[0] += 1;
                                                }
                                            }
                                        }

                                        else {
                                            votes[1] += 1;
                                        }
                                    }
                                }
                            }

                            else {
                                if (x[1] <= 0.7846889793872833) {
                                    if (x[2] <= 0.25114942342042923) {
                                        votes[0] += 1;
                                    }

                                    else {
                                        if (x[1] <= 0.14593300968408585) {
                                            votes[0] += 1;
                                        }

                                        else {
                                            if (x[0] <= 0.8125) {
                                                if (x[3] <= 0.7321428656578064) {
                                                    votes[1] += 1;
                                                }

                                                else {
                                                    if (x[3] <= 0.7678571343421936) {
                                                        votes[0] += 1;
                                                    }

                                                    else {
                                                        votes[1] += 1;
                                                    }
                                                }
                                            }

                                            else {
                                                if (x[2] <= 0.46954023838043213) {
                                                    votes[0] += 1;
                                                }

                                                else {
                                                    votes[1] += 1;
                                                }
                                            }
                                        }
                                    }
                                }

                                else {
                                    if (x[1] <= 0.8660286962985992) {
                                        votes[0] += 1;
                                    }

                                    else {
                                        votes[1] += 1;
                                    }
                                }
                            }
                        }

                        // tree #8
                        if (x[1] <= 0.0047846888191998005) {
                            votes[1] += 1;
                        }

                        else {
                            if (x[3] <= 0.5178571343421936) {
                                if (x[1] <= 0.05263157933950424) {
                                    if (x[2] <= 0.30747126042842865) {
                                        votes[0] += 1;
                                    }

                                    else {
                                        votes[1] += 1;
                                    }
                                }

                                else {
                                    if (x[2] <= 0.3574712723493576) {
                                        if (x[2] <= 0.26379311084747314) {
                                            votes[0] += 1;
                                        }

                                        else {
                                            if (x[1] <= 0.11961722373962402) {
                                                if (x[0] <= 0.125) {
                                                    votes[0] += 1;
                                                }

                                                else {
                                                    votes[1] += 1;
                                                }
                                            }

                                            else {
                                                if (x[3] <= 0.3571428507566452) {
                                                    votes[0] += 1;
                                                }

                                                else {
                                                    if (x[2] <= 0.29655173420906067) {
                                                        votes[0] += 1;
                                                    }

                                                    else {
                                                        if (x[0] <= 0.25) {
                                                            votes[0] += 1;
                                                        }

                                                        else {
                                                            votes[1] += 1;
                                                        }
                                                    }
                                                }
                                            }
                                        }
                                    }

                                    else {
                                        if (x[2] <= 0.40632183849811554) {
                                            if (x[0] <= 0.75) {
                                                if (x[0] <= 0.0625) {
                                                    votes[1] += 1;
                                                }

                                                else {
                                                    if (x[0] <= 0.1875) {
                                                        votes[0] += 1;
                                                    }

                                                    else {
                                                        if (x[0] <= 0.5) {
                                                            votes[1] += 1;
                                                        }

                                                        else {
                                                            votes[0] += 1;
                                                        }
                                                    }
                                                }
                                            }

                                            else {
                                                votes[1] += 1;
                                            }
                                        }

                                        else {
                                            if (x[0] <= 0.0625) {
                                                if (x[2] <= 0.6379310190677643) {
                                                    votes[0] += 1;
                                                }

                                                else {
                                                    if (x[3] <= 0.3035714328289032) {
                                                        votes[1] += 1;
                                                    }

                                                    else {
                                                        if (x[3] <= 0.3392857164144516) {
                                                            if (x[2] <= 0.8678160905838013) {
                                                                votes[1] += 1;
                                                            }

                                                            else {
                                                                votes[0] += 1;
                                                            }
                                                        }

                                                        else {
                                                            votes[1] += 1;
                                                        }
                                                    }
                                                }
                                            }

                                            else {
                                                if (x[1] <= 0.5358851850032806) {
                                                    votes[1] += 1;
                                                }

                                                else {
                                                    if (x[2] <= 0.5350574851036072) {
                                                        votes[0] += 1;
                                                    }

                                                    else {
                                                        votes[1] += 1;
                                                    }
                                                }
                                            }
                                        }
                                    }
                                }
                            }

                            else {
                                if (x[1] <= 0.48564593493938446) {
                                    if (x[1] <= 0.03827751148492098) {
                                        votes[0] += 1;
                                    }

                                    else {
                                        if (x[2] <= 0.18908045440912247) {
                                            votes[0] += 1;
                                        }

                                        else {
                                            if (x[0] <= 0.0625) {
                                                if (x[2] <= 0.45114941895008087) {
                                                    votes[0] += 1;
                                                }

                                                else {
                                                    votes[1] += 1;
                                                }
                                            }

                                            else {
                                                votes[1] += 1;
                                            }
                                        }
                                    }
                                }

                                else {
                                    if (x[2] <= 0.6431034505367279) {
                                        votes[0] += 1;
                                    }

                                    else {
                                        votes[1] += 1;
                                    }
                                }
                            }
                        }

                        // tree #9
                        if (x[1] <= 0.0047846888191998005) {
                            votes[1] += 1;
                        }

                        else {
                            if (x[2] <= 0.42643678188323975) {
                                if (x[3] <= 0.6607142686843872) {
                                    if (x[2] <= 0.26321838796138763) {
                                        if (x[1] <= 0.031100478023290634) {
                                            if (x[2] <= 0.1781609170138836) {
                                                votes[0] += 1;
                                            }

                                            else {
                                                if (x[0] <= 0.25) {
                                                    votes[0] += 1;
                                                }

                                                else {
                                                    if (x[3] <= 0.4642857015132904) {
                                                        votes[1] += 1;
                                                    }

                                                    else {
                                                        votes[0] += 1;
                                                    }
                                                }
                                            }
                                        }

                                        else {
                                            if (x[3] <= 0.5535714328289032) {
                                                votes[0] += 1;
                                            }

                                            else {
                                                if (x[1] <= 0.22727273404598236) {
                                                    if (x[2] <= 0.17758620157837868) {
                                                        votes[0] += 1;
                                                    }

                                                    else {
                                                        votes[1] += 1;
                                                    }
                                                }

                                                else {
                                                    votes[0] += 1;
                                                }
                                            }
                                        }
                                    }

                                    else {
                                        if (x[3] <= 0.160714291036129) {
                                            votes[0] += 1;
                                        }

                                        else {
                                            if (x[1] <= 0.2679425925016403) {
                                                if (x[2] <= 0.3574712723493576) {
                                                    if (x[0] <= 0.125) {
                                                        votes[0] += 1;
                                                    }

                                                    else {
                                                        votes[1] += 1;
                                                    }
                                                }

                                                else {
                                                    votes[1] += 1;
                                                }
                                            }

                                            else {
                                                if (x[3] <= 0.3035714328289032) {
                                                    if (x[2] <= 0.39425286650657654) {
                                                        if (x[0] <= 0.4375) {
                                                            votes[1] += 1;
                                                        }

                                                        else {
                                                            if (x[2] <= 0.3620689660310745) {
                                                                votes[0] += 1;
                                                            }

                                                            else {
                                                                votes[1] += 1;
                                                            }
                                                        }
                                                    }

                                                    else {
                                                        votes[0] += 1;
                                                    }
                                                }

                                                else {
                                                    if (x[0] <= 0.3125) {
                                                        votes[0] += 1;
                                                    }

                                                    else {
                                                        if (x[2] <= 0.4017241448163986) {
                                                            if (x[2] <= 0.35057471692562103) {
                                                                if (x[2] <= 0.29655173420906067) {
                                                                    votes[0] += 1;
                                                                }

                                                                else {
                                                                    votes[1] += 1;
                                                                }
                                                            }

                                                            else {
                                                                votes[0] += 1;
                                                            }
                                                        }

                                                        else {
                                                            votes[1] += 1;
                                                        }
                                                    }
                                                }
                                            }
                                        }
                                    }
                                }

                                else {
                                    if (x[0] <= 0.1875) {
                                        votes[0] += 1;
                                    }

                                    else {
                                        if (x[2] <= 0.13793103583157063) {
                                            votes[0] += 1;
                                        }

                                        else {
                                            votes[1] += 1;
                                        }
                                    }
                                }
                            }

                            else {
                                if (x[1] <= 0.02631578966975212) {
                                    votes[0] += 1;
                                }

                                else {
                                    if (x[3] <= 0.3392857164144516) {
                                        if (x[0] <= 0.0625) {
                                            if (x[1] <= 0.3421052545309067) {
                                                if (x[1] <= 0.2918660193681717) {
                                                    if (x[2] <= 0.7988505959510803) {
                                                        if (x[1] <= 0.20095694065093994) {
                                                            votes[0] += 1;
                                                        }

                                                        else {
                                                            if (x[3] <= 0.2142857164144516) {
                                                                votes[0] += 1;
                                                            }

                                                            else {
                                                                votes[1] += 1;
                                                            }
                                                        }
                                                    }

                                                    else {
                                                        votes[1] += 1;
                                                    }
                                                }

                                                else {
                                                    votes[0] += 1;
                                                }
                                            }

                                            else {
                                                votes[1] += 1;
                                            }
                                        }

                                        else {
                                            votes[1] += 1;
                                        }
                                    }

                                    else {
                                        if (x[3] <= 0.7321428656578064) {
                                            votes[1] += 1;
                                        }

                                        else {
                                            if (x[2] <= 0.6264367699623108) {
                                                votes[1] += 1;
                                            }

                                            else {
                                                if (x[1] <= 0.40909092128276825) {
                                                    votes[1] += 1;
                                                }

                                                else {
                                                    if (x[0] <= 0.4375) {
                                                        votes[0] += 1;
                                                    }

                                                    else {
                                                        votes[1] += 1;
                                                    }
                                                }
                                            }
                                        }
                                    }
                                }
                            }
                        }

                        // tree #10
                        if (x[3] <= 0.5535714328289032) {
                            if (x[1] <= 0.3564593344926834) {
                                if (x[2] <= 0.3574712723493576) {
                                    if (x[2] <= 0.24080459773540497) {
                                        votes[0] += 1;
                                    }

                                    else {
                                        if (x[1] <= 0.04545454680919647) {
                                            if (x[1] <= 0.016746411565691233) {
                                                votes[0] += 1;
                                            }

                                            else {
                                                if (x[3] <= 0.3214285671710968) {
                                                    votes[0] += 1;
                                                }

                                                else {
                                                    votes[1] += 1;
                                                }
                                            }
                                        }

                                        else {
                                            if (x[1] <= 0.12440191209316254) {
                                                if (x[3] <= 0.4464285671710968) {
                                                    votes[0] += 1;
                                                }

                                                else {
                                                    votes[1] += 1;
                                                }
                                            }

                                            else {
                                                votes[0] += 1;
                                            }
                                        }
                                    }
                                }

                                else {
                                    if (x[0] <= 0.0625) {
                                        if (x[3] <= 0.3392857164144516) {
                                            if (x[3] <= 0.3035714328289032) {
                                                if (x[1] <= 0.05980861373245716) {
                                                    votes[0] += 1;
                                                }

                                                else {
                                                    votes[1] += 1;
                                                }
                                            }

                                            else {
                                                votes[0] += 1;
                                            }
                                        }

                                        else {
                                            votes[1] += 1;
                                        }
                                    }

                                    else {
                                        if (x[2] <= 0.40632183849811554) {
                                            if (x[1] <= 0.18421052396297455) {
                                                if (x[0] <= 0.1875) {
                                                    votes[0] += 1;
                                                }

                                                else {
                                                    votes[1] += 1;
                                                }
                                            }

                                            else {
                                                if (x[1] <= 0.2846889942884445) {
                                                    votes[0] += 1;
                                                }

                                                else {
                                                    votes[1] += 1;
                                                }
                                            }
                                        }

                                        else {
                                            votes[1] += 1;
                                        }
                                    }
                                }
                            }

                            else {
                                if (x[1] <= 0.9952152967453003) {
                                    if (x[2] <= 0.44655172526836395) {
                                        if (x[2] <= 0.31551724672317505) {
                                            votes[0] += 1;
                                        }

                                        else {
                                            if (x[2] <= 0.3844827562570572) {
                                                if (x[1] <= 0.5956937968730927) {
                                                    if (x[0] <= 0.5625) {
                                                        votes[1] += 1;
                                                    }

                                                    else {
                                                        if (x[1] <= 0.4449760764837265) {
                                                            votes[1] += 1;
                                                        }

                                                        else {
                                                            votes[0] += 1;
                                                        }
                                                    }
                                                }

                                                else {
                                                    votes[0] += 1;
                                                }
                                            }

                                            else {
                                                votes[0] += 1;
                                            }
                                        }
                                    }

                                    else {
                                        if (x[2] <= 0.9310344755649567) {
                                            if (x[3] <= 0.2321428582072258) {
                                                if (x[1] <= 0.5574162900447845) {
                                                    votes[1] += 1;
                                                }

                                                else {
                                                    votes[0] += 1;
                                                }
                                            }

                                            else {
                                                votes[1] += 1;
                                            }
                                        }

                                        else {
                                            votes[0] += 1;
                                        }
                                    }
                                }

                                else {
                                    votes[1] += 1;
                                }
                            }
                        }

                        else {
                            if (x[2] <= 0.1666666716337204) {
                                votes[0] += 1;
                            }

                            else {
                                if (x[0] <= 0.1875) {
                                    if (x[2] <= 0.6494252979755402) {
                                        if (x[2] <= 0.49482758343219757) {
                                            votes[0] += 1;
                                        }

                                        else {
                                            if (x[1] <= 0.5334928333759308) {
                                                votes[1] += 1;
                                            }

                                            else {
                                                votes[0] += 1;
                                            }
                                        }
                                    }

                                    else {
                                        votes[1] += 1;
                                    }
                                }

                                else {
                                    if (x[0] <= 0.8125) {
                                        votes[1] += 1;
                                    }

                                    else {
                                        if (x[2] <= 0.5143678039312363) {
                                            votes[0] += 1;
                                        }

                                        else {
                                            votes[1] += 1;
                                        }
                                    }
                                }
                            }
                        }

                        // tree #11
                        if (x[2] <= 0.3574712723493576) {
                            if (x[3] <= 0.5535714328289032) {
                                if (x[1] <= 0.06220095604658127) {
                                    if (x[2] <= 0.2586206942796707) {
                                        if (x[2] <= 0.23620689660310745) {
                                            votes[0] += 1;
                                        }

                                        else {
                                            if (x[3] <= 0.375) {
                                                votes[0] += 1;
                                            }

                                            else {
                                                votes[1] += 1;
                                            }
                                        }
                                    }

                                    else {
                                        if (x[1] <= 0.03588516637682915) {
                                            if (x[2] <= 0.2931034564971924) {
                                                votes[0] += 1;
                                            }

                                            else {
                                                votes[1] += 1;
                                            }
                                        }

                                        else {
                                            votes[1] += 1;
                                        }
                                    }
                                }

                                else {
                                    votes[0] += 1;
                                }
                            }

                            else {
                                if (x[0] <= 0.1875) {
                                    votes[0] += 1;
                                }

                                else {
                                    if (x[2] <= 0.1666666716337204) {
                                        votes[0] += 1;
                                    }

                                    else {
                                        votes[1] += 1;
                                    }
                                }
                            }
                        }

                        else {
                            if (x[1] <= 0.3014353960752487) {
                                if (x[3] <= 0.875) {
                                    if (x[1] <= 0.02631578966975212) {
                                        if (x[1] <= 0.021531100384891033) {
                                            votes[1] += 1;
                                        }

                                        else {
                                            if (x[0] <= 0.375) {
                                                votes[0] += 1;
                                            }

                                            else {
                                                votes[1] += 1;
                                            }
                                        }
                                    }

                                    else {
                                        if (x[2] <= 0.38275861740112305) {
                                            if (x[2] <= 0.373563215136528) {
                                                votes[1] += 1;
                                            }

                                            else {
                                                if (x[3] <= 0.4107142835855484) {
                                                    votes[0] += 1;
                                                }

                                                else {
                                                    votes[1] += 1;
                                                }
                                            }
                                        }

                                        else {
                                            votes[1] += 1;
                                        }
                                    }
                                }

                                else {
                                    if (x[2] <= 0.49425287544727325) {
                                        votes[0] += 1;
                                    }

                                    else {
                                        votes[1] += 1;
                                    }
                                }
                            }

                            else {
                                if (x[2] <= 0.40632183849811554) {
                                    if (x[3] <= 0.6428571343421936) {
                                        if (x[0] <= 0.75) {
                                            votes[0] += 1;
                                        }

                                        else {
                                            if (x[3] <= 0.3571428507566452) {
                                                votes[1] += 1;
                                            }

                                            else {
                                                votes[0] += 1;
                                            }
                                        }
                                    }

                                    else {
                                        votes[1] += 1;
                                    }
                                }

                                else {
                                    if (x[3] <= 0.3392857164144516) {
                                        if (x[0] <= 0.125) {
                                            if (x[1] <= 0.3421052545309067) {
                                                votes[0] += 1;
                                            }

                                            else {
                                                if (x[2] <= 0.9310344755649567) {
                                                    votes[1] += 1;
                                                }

                                                else {
                                                    votes[0] += 1;
                                                }
                                            }
                                        }

                                        else {
                                            if (x[1] <= 0.5215311199426651) {
                                                votes[1] += 1;
                                            }

                                            else {
                                                votes[0] += 1;
                                            }
                                        }
                                    }

                                    else {
                                        votes[1] += 1;
                                    }
                                }
                            }
                        }

                        // tree #12
                        if (x[3] <= 0.5535714328289032) {
                            if (x[3] <= 0.160714291036129) {
                                if (x[3] <= 0.01785714365541935) {
                                    votes[1] += 1;
                                }

                                else {
                                    if (x[3] <= 0.1250000037252903) {
                                        if (x[1] <= 0.2248803824186325) {
                                            if (x[2] <= 0.3844827562570572) {
                                                votes[0] += 1;
                                            }

                                            else {
                                                votes[1] += 1;
                                            }
                                        }

                                        else {
                                            if (x[2] <= 0.5051724016666412) {
                                                votes[0] += 1;
                                            }

                                            else {
                                                votes[1] += 1;
                                            }
                                        }
                                    }

                                    else {
                                        votes[0] += 1;
                                    }
                                }
                            }

                            else {
                                if (x[2] <= 0.3620689660310745) {
                                    if (x[2] <= 0.26379311084747314) {
                                        if (x[3] <= 0.5178571343421936) {
                                            votes[0] += 1;
                                        }

                                        else {
                                            if (x[0] <= 0.4375) {
                                                if (x[2] <= 0.1862068921327591) {
                                                    votes[0] += 1;
                                                }

                                                else {
                                                    votes[1] += 1;
                                                }
                                            }

                                            else {
                                                votes[0] += 1;
                                            }
                                        }
                                    }

                                    else {
                                        if (x[1] <= 0.06698564440011978) {
                                            votes[1] += 1;
                                        }

                                        else {
                                            if (x[1] <= 0.48086124658584595) {
                                                if (x[0] <= 0.1875) {
                                                    votes[0] += 1;
                                                }

                                                else {
                                                    if (x[0] <= 0.5625) {
                                                        votes[1] += 1;
                                                    }

                                                    else {
                                                        votes[0] += 1;
                                                    }
                                                }
                                            }

                                            else {
                                                votes[0] += 1;
                                            }
                                        }
                                    }
                                }

                                else {
                                    if (x[0] <= 0.1875) {
                                        if (x[2] <= 0.6086207032203674) {
                                            votes[0] += 1;
                                        }

                                        else {
                                            if (x[1] <= 0.2679425776004791) {
                                                if (x[2] <= 0.6540229916572571) {
                                                    votes[1] += 1;
                                                }

                                                else {
                                                    votes[0] += 1;
                                                }
                                            }

                                            else {
                                                if (x[1] <= 0.6578947305679321) {
                                                    votes[1] += 1;
                                                }

                                                else {
                                                    votes[0] += 1;
                                                }
                                            }
                                        }
                                    }

                                    else {
                                        if (x[1] <= 0.5023923367261887) {
                                            votes[1] += 1;
                                        }

                                        else {
                                            if (x[2] <= 0.5350574851036072) {
                                                votes[0] += 1;
                                            }

                                            else {
                                                votes[1] += 1;
                                            }
                                        }
                                    }
                                }
                            }
                        }

                        else {
                            if (x[1] <= 0.06459330022335052) {
                                if (x[2] <= 0.14942529052495956) {
                                    votes[0] += 1;
                                }

                                else {
                                    if (x[0] <= 0.1875) {
                                        votes[0] += 1;
                                    }

                                    else {
                                        votes[1] += 1;
                                    }
                                }
                            }

                            else {
                                if (x[3] <= 0.625) {
                                    if (x[0] <= 0.8125) {
                                        votes[1] += 1;
                                    }

                                    else {
                                        if (x[1] <= 0.6937799155712128) {
                                            votes[0] += 1;
                                        }

                                        else {
                                            votes[1] += 1;
                                        }
                                    }
                                }

                                else {
                                    if (x[0] <= 0.4375) {
                                        if (x[1] <= 0.1483253538608551) {
                                            if (x[1] <= 0.1315789446234703) {
                                                votes[1] += 1;
                                            }

                                            else {
                                                votes[0] += 1;
                                            }
                                        }

                                        else {
                                            votes[1] += 1;
                                        }
                                    }

                                    else {
                                        if (x[2] <= 0.2528735622763634) {
                                            votes[0] += 1;
                                        }

                                        else {
                                            votes[1] += 1;
                                        }
                                    }
                                }
                            }
                        }

                        // tree #13
                        if (x[2] <= 0.29137930274009705) {
                            if (x[2] <= 0.24655171483755112) {
                                if (x[2] <= 0.24080459773540497) {
                                    votes[0] += 1;
                                }

                                else {
                                    if (x[1] <= 0.07177033461630344) {
                                        votes[1] += 1;
                                    }

                                    else {
                                        votes[0] += 1;
                                    }
                                }
                            }

                            else {
                                if (x[0] <= 0.3125) {
                                    if (x[3] <= 0.3035714328289032) {
                                        if (x[1] <= 0.17703349143266678) {
                                            votes[1] += 1;
                                        }

                                        else {
                                            votes[0] += 1;
                                        }
                                    }

                                    else {
                                        votes[0] += 1;
                                    }
                                }

                                else {
                                    if (x[0] <= 0.5625) {
                                        votes[1] += 1;
                                    }

                                    else {
                                        votes[0] += 1;
                                    }
                                }
                            }
                        }

                        else {
                            if (x[3] <= 0.1250000037252903) {
                                if (x[3] <= 0.07142857275903225) {
                                    votes[0] += 1;
                                }

                                else {
                                    if (x[1] <= 0.31100478768348694) {
                                        votes[1] += 1;
                                    }

                                    else {
                                        votes[0] += 1;
                                    }
                                }
                            }

                            else {
                                if (x[1] <= 0.559808611869812) {
                                    if (x[0] <= 0.0625) {
                                        if (x[2] <= 0.6379310190677643) {
                                            if (x[3] <= 0.3035714328289032) {
                                                votes[1] += 1;
                                            }

                                            else {
                                                votes[0] += 1;
                                            }
                                        }

                                        else {
                                            if (x[3] <= 0.2678571492433548) {
                                                votes[0] += 1;
                                            }

                                            else {
                                                votes[1] += 1;
                                            }
                                        }
                                    }

                                    else {
                                        if (x[3] <= 0.1964285746216774) {
                                            if (x[1] <= 0.3181818127632141) {
